<?xml version="1.0"?>
<opencv_storage>
<cascade>
  <stageType>BOOST</stageType>
  <featureType>HAAR</featureType>
  <height>24</height>
  <width>24</width>
  <stageParams>
    <boostType>GAB</boostType>
    <minHitRate>9.9500000476837158e-01</minHitRate>
    <maxFalseAlarm>5.0000000000000000e-01</maxFalseAlarm>
    <weightTrimRate>9.4999998807907104e-01</weightTrimRate>
    <maxDepth>1</maxDepth>
    <maxWeakCount>100</maxWeakCount></stageParams>
  <featureParams>
    <maxCatCount>0</maxCatCount>
    <featSize>1</featSize>
    <mode>BASIC</mode></featureParams>
  <stageNum>5</stageNum>
  <stages>
    <!-- stage 0 -->
    <_>
      <maxWeakCount>3</maxWeakCount>
      <stageThreshold>-1.2147620916366577e+00</stageThreshold>
      <weakClassifiers>
        <_>
          <internalNodes>
            0 -1 5 4.1346684098243713e-02</internalNodes>
          <leafValues>
            -9.7921663522720337e-01 8.9285713434219360e-01</leafValues></_>
        <_>
          <internalNodes>
            0 -1 4 1.0295994579792023e-02</internalNodes>
          <leafValues>
            -9.7182428836822510e-01 8.2668775320053101e-01</leafValues></_>
        <_>
          <internalNodes>
            0 -1 6 -5.8397985994815826e-02</internalNodes>
          <leafValues>
            7.3627883195877075e-01 -9.7628962993621826e-01</leafValues></_></weakClassifiers></_>
    <!-- stage 1 -->
    <_>
      <maxWeakCount>3</maxWeakCount>
      <stageThreshold>-1.2267973423004150e+00</stageThreshold>
      <weakClassifiers>
        <_>
          <internalNodes>
            0 -1 11 -8.4711201488971710e-03</internalNodes>
          <leafValues>
            6.2318837642669678e-01 -9.8857140541076660e-01</leafValues></_>
        <_>
          <internalNodes>
            0 -1 2 3.8845129311084747e-02</internalNodes>
          <leafValues>
            -9.6763831377029419e-01 7.0446157455444336e-01</leafValues></_>
        <_>
          <internalNodes>
            0 -1 16 -2.0419773645699024e-03</internalNodes>
          <leafValues>
            7.7272170782089233e-01 -8.8234740495681763e-01</leafValues></_></weakClassifiers></_>
    <!-- stage 2 -->
    <_>
      <maxWeakCount>3</maxWeakCount>
      <stageThreshold>-1.0228128433227539e+00</stageThreshold>
      <weakClassifiers>
        <_>
          <internalNodes>
            0 -1 10 5.8330679312348366e-03</internalNodes>
          <leafValues>
            -9.6518987417221069e-01 9.5959597826004028e-01</leafValues></_>
        <_>
          <internalNodes>
            0 -1 3 -1.2474616989493370e-02</internalNodes>
          <leafValues>
            8.3533954620361328e-01 -9.2452585697174072e-01</leafValues></_>
        <_>
          <internalNodes>
            0 -1 7 6.2667451798915863e-02</internalNodes>
          <leafValues>
            -8.9296251535415649e-01 8.7591779232025146e-01</leafValues></_></weakClassifiers></_>
    <!-- stage 3 -->
    <_>
      <maxWeakCount>4</maxWeakCount>
      <stageThreshold>-1.8079881668090820e+00</stageThreshold>
      <weakClassifiers>
        <_>
          <internalNodes>
            0 -1 1 -2.5242954492568970e-02</internalNodes>
          <leafValues>
            9.7777777910232544e-01 -9.5286726951599121e-01</leafValues></_>
        <_>
          <internalNodes>
            0 -1 14 6.8928584456443787e-02</internalNodes>
          <leafValues>
            -8.6926716566085815e-01 8.2840710878372192e-01</leafValues></_>
        <_>
          <internalNodes>
            0 -1 8 2.3698836565017700e-01</internalNodes>
          <leafValues>
            -8.3978414535522461e-01 7.3366117477416992e-01</leafValues></_>
        <_>
          <internalNodes>
            0 -1 9 1.2979215011000633e-02</internalNodes>
          <leafValues>
            -7.1951496601104736e-01 9.5558428764343262e-01</leafValues></_></weakClassifiers></_>
    <!-- stage 4 -->
    <_>
      <maxWeakCount>4</maxWeakCount>
      <stageThreshold>-2.0073721408843994e+00</stageThreshold>
      <weakClassifiers>
        <_>
          <internalNodes>
            0 -1 0 -5.7627558708190918e-03</internalNodes>
          <leafValues>
            8.5454547405242920e-01 -9.7286510467529297e-01</leafValues></_>
        <_>
          <internalNodes>
            0 -1 15 -2.6446226984262466e-03</internalNodes>
          <leafValues>
            7.7047055959701538e-01 -9.1451865434646606e-01</leafValues></_>
        <_>
          <internalNodes>
            0 -1 13 5.0928041338920593e-02</internalNodes>
          <leafValues>
            -8.4529519081115723e-01 7.8402209281921387e-01</leafValues></_>
        <_>
          <internalNodes>
            0 -1 12 1.7061650287359953e-03</internalNodes>
          <leafValues>
            -8.6458116769790649e-01 7.2530674934387207e-01</leafValues></_></weakClassifiers></_></stages>
  <features>
    <_>
      <rects>
        <_>
          0 17 10 2 -1.</_>
        <_>
          0 17 5 1 2.</_>
        <_>
          5 18 5 1 2.</_></rects>
      <tilted>0</tilted></_>
    <_>
      <rects>
        <_>
          0 17 16 2 -1.</_>
        <_>
          0 18 16 1 2.</_></rects>
      <tilted>0</tilted></_>
    <_>
      <rects>
        <_>
          1 8 18 1 -1.</_>
        <_>
          7 8 6 1 3.</_></rects>
      <tilted>0</tilted></_>
    <_>
      <rects>
        <_>
          5 0 3 13 -1.</_>
        <_>
          6 0 1 13 3.</_></rects>
      <tilted>0</tilted></_>
    <_>
      <rects>
        <_>
          7 2 2 10 -1.</_>
        <_>
          7 2 1 5 2.</_>
        <_>
          8 7 1 5 2.</_></rects>
      <tilted>0</tilted></_>
    <_>
      <rects>
        <_>
          9 7 8 6 -1.</_>
        <_>
          9 7 4 3 2.</_>
        <_>
          13 10 4 3 2.</_></rects>
      <tilted>0</tilted></_>
    <_>
      <rects>
        <_>
          9 11 11 6 -1.</_>
        <_>
          9 14 11 3 2.</_></rects>
      <tilted>0</tilted></_>
    <_>
      <rects>
        <_>
          11 0 2 18 -1.</_>
        <_>
          11 6 2 6 3.</_></rects>
      <tilted>0</tilted></_>
    <_>
      <rects>
        <_>
          11 1 8 21 -1.</_>
        <_>
          11 8 8 7 3.</_></rects>
      <tilted>0</tilted></_>
    <_>
      <rects>
        <_>
          11 4 9 3 -1.</_>
        <_>
          11 5 9 1 3.</_></rects>
      <tilted>0</tilted></_>
    <_>
      <rects>
        <_>
          12 3 3 2 -1.</_>
        <_>
          13 3 1 2 3.</_></rects>
      <tilted>0</tilted></_>
    <_>
      <rects>
        <_>
          13 8 8 2 -1.</_>
        <_>
          13 8 4 1 2.</_>
        <_>
          17 9 4 1 2.</_></rects>
      <tilted>0</tilted></_>
    <_>
      <rects>
        <_>
          13 13 3 3 -1.</_>
        <_>
          13 14 3 1 3.</_></rects>
      <tilted>0</tilted></_>
    <_>
      <rects>
        <_>
          13 13 9 10 -1.</_>
        <_>
          16 13 3 10 3.</_></rects>
      <tilted>0</tilted></_>
    <_>
      <rects>
        <_>
          14 6 9 8 -1.</_>
        <_>
          17 6 3 8 3.</_></rects>
      <tilted>0</tilted></_>
    <_>
      <rects>
        <_>
          15 6 2 2 -1.</_>
        <_>
          15 7 2 1 2.</_></rects>
      <tilted>0</tilted></_>
    <_>
      <rects>
        <_>
          15 18 2 4 -1.</_>
        <_>
          15 18 1 2 2.</_>
        <_>
          16 20 1 2 2.</_></rects>
      <tilted>0</tilted></_></features></cascade>
</opencv_storage>
