<?xml version="1.0"?>
<opencv_storage>
<cascade>
  <stageType>BOOST</stageType>
  <featureType>HAAR</featureType>
  <height>24</height>
  <width>24</width>
  <stageParams>
    <boostType>GAB</boostType>
    <minHitRate>9.9500000476837158e-01</minHitRate>
    <maxFalseAlarm>5.0000000000000000e-01</maxFalseAlarm>
    <weightTrimRate>9.4999998807907104e-01</weightTrimRate>
    <maxDepth>1</maxDepth>
    <maxWeakCount>100</maxWeakCount></stageParams>
  <featureParams>
    <maxCatCount>0</maxCatCount>
    <featSize>1</featSize>
    <mode>BASIC</mode></featureParams>
  <stageNum>11</stageNum>
  <stages>
    <!-- stage 0 -->
    <_>
      <maxWeakCount>4</maxWeakCount>
      <stageThreshold>-2.1374924182891846e+00</stageThreshold>
      <weakClassifiers>
        <_>
          <internalNodes>
            0 -1 35 -1.3878667727112770e-02</internalNodes>
          <leafValues>
            9.1549295186996460e-01 -9.7290837764739990e-01</leafValues></_>
        <_>
          <internalNodes>
            0 -1 44 2.5275531224906445e-03</internalNodes>
          <leafValues>
            -9.2476963996887207e-01 7.5436103343963623e-01</leafValues></_>
        <_>
          <internalNodes>
            0 -1 18 1.0744572617113590e-02</internalNodes>
          <leafValues>
            -8.2150334119796753e-01 7.2039896249771118e-01</leafValues></_>
        <_>
          <internalNodes>
            0 -1 36 -9.2278867959976196e-03</internalNodes>
          <leafValues>
            5.8168894052505493e-01 -8.0580067634582520e-01</leafValues></_></weakClassifiers></_>
    <!-- stage 1 -->
    <_>
      <maxWeakCount>4</maxWeakCount>
      <stageThreshold>-1.7416347265243530e+00</stageThreshold>
      <weakClassifiers>
        <_>
          <internalNodes>
            0 -1 29 4.6785071492195129e-02</internalNodes>
          <leafValues>
            -9.6044301986694336e-01 9.2481201887130737e-01</leafValues></_>
        <_>
          <internalNodes>
            0 -1 21 1.1507425457239151e-02</internalNodes>
          <leafValues>
            -8.6959534883499146e-01 8.5394299030303955e-01</leafValues></_>
        <_>
          <internalNodes>
            0 -1 19 1.2631027027964592e-02</internalNodes>
          <leafValues>
            -6.8543434143066406e-01 7.8424316644668579e-01</leafValues></_>
        <_>
          <internalNodes>
            0 -1 42 1.3823730405420065e-03</internalNodes>
          <leafValues>
            -6.9583952426910400e-01 7.9309296607971191e-01</leafValues></_></weakClassifiers></_>
    <!-- stage 2 -->
    <_>
      <maxWeakCount>5</maxWeakCount>
      <stageThreshold>-2.2026464939117432e+00</stageThreshold>
      <weakClassifiers>
        <_>
          <internalNodes>
            0 -1 28 1.0404749959707260e-01</internalNodes>
          <leafValues>
            -9.5091050863265991e-01 8.2089549303054810e-01</leafValues></_>
        <_>
          <internalNodes>
            0 -1 38 -8.9355241507291794e-03</internalNodes>
          <leafValues>
            8.6425584554672241e-01 -8.0110001564025879e-01</leafValues></_>
        <_>
          <internalNodes>
            0 -1 16 1.9740063697099686e-02</internalNodes>
          <leafValues>
            -6.9624453783035278e-01 5.6738841533660889e-01</leafValues></_>
        <_>
          <internalNodes>
            0 -1 7 -4.4070295989513397e-03</internalNodes>
          <leafValues>
            7.1071106195449829e-01 -5.0151449441909790e-01</leafValues></_>
        <_>
          <internalNodes>
            0 -1 30 -3.7937611341476440e-04</internalNodes>
          <leafValues>
            7.5683856010437012e-01 -4.6510234475135803e-01</leafValues></_></weakClassifiers></_>
    <!-- stage 3 -->
    <_>
      <maxWeakCount>4</maxWeakCount>
      <stageThreshold>-1.9383021593093872e+00</stageThreshold>
      <weakClassifiers>
        <_>
          <internalNodes>
            0 -1 15 3.8417831063270569e-02</internalNodes>
          <leafValues>
            -9.3286496400833130e-01 8.9655172824859619e-01</leafValues></_>
        <_>
          <internalNodes>
            0 -1 25 2.8731897473335266e-02</internalNodes>
          <leafValues>
            -8.4962898492813110e-01 3.2543921470642090e-01</leafValues></_>
        <_>
          <internalNodes>
            0 -1 31 4.3114539235830307e-02</internalNodes>
          <leafValues>
            -5.1732611656188965e-01 7.1944600343704224e-01</leafValues></_>
        <_>
          <internalNodes>
            0 -1 37 9.6442364156246185e-03</internalNodes>
          <leafValues>
            -8.1355035305023193e-01 3.8793331384658813e-01</leafValues></_></weakClassifiers></_>
    <!-- stage 4 -->
    <_>
      <maxWeakCount>5</maxWeakCount>
      <stageThreshold>-2.0015528202056885e+00</stageThreshold>
      <weakClassifiers>
        <_>
          <internalNodes>
            0 -1 27 3.6409374326467514e-02</internalNodes>
          <leafValues>
            -9.1962903738021851e-01 9.6116507053375244e-01</leafValues></_>
        <_>
          <internalNodes>
            0 -1 5 4.0892452001571655e-02</internalNodes>
          <leafValues>
            -7.3109251260757446e-01 7.0942050218582153e-01</leafValues></_>
        <_>
          <internalNodes>
            0 -1 26 -7.0883609354496002e-02</internalNodes>
          <leafValues>
            9.1599285602569580e-01 -5.5776202678680420e-01</leafValues></_>
        <_>
          <internalNodes>
            0 -1 6 1.3101682066917419e-01</internalNodes>
          <leafValues>
            -4.1226008534431458e-01 7.7433592081069946e-01</leafValues></_>
        <_>
          <internalNodes>
            0 -1 17 9.3809310346841812e-03</internalNodes>
          <leafValues>
            -4.8643139004707336e-01 6.1919093132019043e-01</leafValues></_></weakClassifiers></_>
    <!-- stage 5 -->
    <_>
      <maxWeakCount>5</maxWeakCount>
      <stageThreshold>-1.9676308631896973e+00</stageThreshold>
      <weakClassifiers>
        <_>
          <internalNodes>
            0 -1 33 1.4050811529159546e-02</internalNodes>
          <leafValues>
            -9.1962903738021851e-01 9.6116507053375244e-01</leafValues></_>
        <_>
          <internalNodes>
            0 -1 24 -2.2045068442821503e-02</internalNodes>
          <leafValues>
            6.3064908981323242e-01 -7.5937652587890625e-01</leafValues></_>
        <_>
          <internalNodes>
            0 -1 8 -1.9492799043655396e-01</internalNodes>
          <leafValues>
            9.5828330516815186e-01 -4.5978456735610962e-01</leafValues></_>
        <_>
          <internalNodes>
            0 -1 41 -1.1172672733664513e-02</internalNodes>
          <leafValues>
            5.6996315717697144e-01 -5.3691273927688599e-01</leafValues></_>
        <_>
          <internalNodes>
            0 -1 3 1.3719952106475830e-01</internalNodes>
          <leafValues>
            -3.9880377054214478e-01 7.7525985240936279e-01</leafValues></_></weakClassifiers></_>
    <!-- stage 6 -->
    <_>
      <maxWeakCount>4</maxWeakCount>
      <stageThreshold>-1.6941442489624023e+00</stageThreshold>
      <weakClassifiers>
        <_>
          <internalNodes>
            0 -1 45 -2.5205123238265514e-03</internalNodes>
          <leafValues>
            7.5652176141738892e-01 -9.1887676715850830e-01</leafValues></_>
        <_>
          <internalNodes>
            0 -1 20 -1.3015713542699814e-02</internalNodes>
          <leafValues>
            5.0772452354431152e-01 -7.5593870878219604e-01</leafValues></_>
        <_>
          <internalNodes>
            0 -1 24 -2.5503903627395630e-02</internalNodes>
          <leafValues>
            6.4005148410797119e-01 -5.5421495437622070e-01</leafValues></_>
        <_>
          <internalNodes>
            0 -1 47 1.5798025997355580e-03</internalNodes>
          <leafValues>
            -5.9651249647140503e-01 5.3488612174987793e-01</leafValues></_></weakClassifiers></_>
    <!-- stage 7 -->
    <_>
      <maxWeakCount>6</maxWeakCount>
      <stageThreshold>-1.6641532182693481e+00</stageThreshold>
      <weakClassifiers>
        <_>
          <internalNodes>
            0 -1 11 3.5444278270006180e-02</internalNodes>
          <leafValues>
            -9.3370163440704346e-01 7.0769232511520386e-01</leafValues></_>
        <_>
          <internalNodes>
            0 -1 40 -5.5498061701655388e-03</internalNodes>
          <leafValues>
            4.3353912234306335e-01 -7.2731053829193115e-01</leafValues></_>
        <_>
          <internalNodes>
            0 -1 46 3.4983255900442600e-03</internalNodes>
          <leafValues>
            -6.5660756826400757e-01 5.1693010330200195e-01</leafValues></_>
        <_>
          <internalNodes>
            0 -1 43 -1.2095037382096052e-03</internalNodes>
          <leafValues>
            7.5841802358627319e-01 -4.1679361462593079e-01</leafValues></_>
        <_>
          <internalNodes>
            0 -1 10 -2.8821602463722229e-03</internalNodes>
          <leafValues>
            5.0838261842727661e-01 -5.1566570997238159e-01</leafValues></_>
        <_>
          <internalNodes>
            0 -1 32 9.2135020531713963e-04</internalNodes>
          <leafValues>
            -5.7966798543930054e-01 5.6187748908996582e-01</leafValues></_></weakClassifiers></_>
    <!-- stage 8 -->
    <_>
      <maxWeakCount>4</maxWeakCount>
      <stageThreshold>-1.5573561191558838e+00</stageThreshold>
      <weakClassifiers>
        <_>
          <internalNodes>
            0 -1 22 8.5926257073879242e-02</internalNodes>
          <leafValues>
            -9.2545598745346069e-01 5.5882352590560913e-01</leafValues></_>
        <_>
          <internalNodes>
            0 -1 39 6.2645524740219116e-02</internalNodes>
          <leafValues>
            -8.1315213441848755e-01 1.6927692294120789e-01</leafValues></_>
        <_>
          <internalNodes>
            0 -1 48 -1.2510118540376425e-04</internalNodes>
          <leafValues>
            -8.3145934343338013e-01 1.6342866420745850e-01</leafValues></_>
        <_>
          <internalNodes>
            0 -1 49 -8.4342158515937626e-05</internalNodes>
          <leafValues>
            -9.6460574865341187e-01 1.8238487839698792e-01</leafValues></_></weakClassifiers></_>
    <!-- stage 9 -->
    <_>
      <maxWeakCount>4</maxWeakCount>
      <stageThreshold>-1.5392619371414185e+00</stageThreshold>
      <weakClassifiers>
        <_>
          <internalNodes>
            0 -1 23 9.8918050527572632e-02</internalNodes>
          <leafValues>
            -9.2307692766189575e-01 6.9105690717697144e-01</leafValues></_>
        <_>
          <internalNodes>
            0 -1 14 6.4377322793006897e-02</internalNodes>
          <leafValues>
            -8.0303221940994263e-01 3.5578036308288574e-01</leafValues></_>
        <_>
          <internalNodes>
            0 -1 12 -1.2035399675369263e-01</internalNodes>
          <leafValues>
            8.8420212268829346e-01 -4.2634856700897217e-01</leafValues></_>
        <_>
          <internalNodes>
            0 -1 4 1.6334155201911926e-01</internalNodes>
          <leafValues>
            -5.4561686515808105e-01 7.2296106815338135e-01</leafValues></_></weakClassifiers></_>
    <!-- stage 10 -->
    <_>
      <maxWeakCount>6</maxWeakCount>
      <stageThreshold>-1.8556560277938843e+00</stageThreshold>
      <weakClassifiers>
        <_>
          <internalNodes>
            0 -1 34 1.6965541988611221e-02</internalNodes>
          <leafValues>
            -9.1804569959640503e-01 5.7812500000000000e-01</leafValues></_>
        <_>
          <internalNodes>
            0 -1 9 -6.0438752174377441e-02</internalNodes>
          <leafValues>
            5.1760441064834595e-01 -6.9617718458175659e-01</leafValues></_>
        <_>
          <internalNodes>
            0 -1 13 -1.9739356637001038e-01</internalNodes>
          <leafValues>
            9.3784826993942261e-01 -3.8440999388694763e-01</leafValues></_>
        <_>
          <internalNodes>
            0 -1 2 8.4183998405933380e-02</internalNodes>
          <leafValues>
            -4.2349785566329956e-01 7.0447599887847900e-01</leafValues></_>
        <_>
          <internalNodes>
            0 -1 1 5.7983334409072995e-04</internalNodes>
          <leafValues>
            3.0312046408653259e-01 -9.6495664119720459e-01</leafValues></_>
        <_>
          <internalNodes>
            0 -1 0 -8.1846828106790781e-04</internalNodes>
          <leafValues>
            -9.8428869247436523e-01 2.6335424184799194e-01</leafValues></_></weakClassifiers></_></stages>
  <features>
    <_>
      <rects>
        <_>
          0 1 3 3 -1.</_>
        <_>
          0 2 3 1 3.</_></rects>
      <tilted>0</tilted></_>
    <_>
      <rects>
        <_>
          0 1 6 3 -1.</_>
        <_>
          0 2 6 1 3.</_></rects>
      <tilted>0</tilted></_>
    <_>
      <rects>
        <_>
          1 6 10 10 -1.</_>
        <_>
          6 6 5 10 2.</_></rects>
      <tilted>0</tilted></_>
    <_>
      <rects>
        <_>
          1 9 21 4 -1.</_>
        <_>
          8 9 7 4 3.</_></rects>
      <tilted>0</tilted></_>
    <_>
      <rects>
        <_>
          2 7 21 11 -1.</_>
        <_>
          9 7 7 11 3.</_></rects>
      <tilted>0</tilted></_>
    <_>
      <rects>
        <_>
          2 9 21 1 -1.</_>
        <_>
          9 9 7 1 3.</_></rects>
      <tilted>0</tilted></_>
    <_>
      <rects>
        <_>
          3 6 21 13 -1.</_>
        <_>
          10 6 7 13 3.</_></rects>
      <tilted>0</tilted></_>
    <_>
      <rects>
        <_>
          3 6 9 3 -1.</_>
        <_>
          3 7 9 1 3.</_></rects>
      <tilted>0</tilted></_>
    <_>
      <rects>
        <_>
          4 3 15 13 -1.</_>
        <_>
          9 3 5 13 3.</_></rects>
      <tilted>0</tilted></_>
    <_>
      <rects>
        <_>
          4 9 20 2 -1.</_>
        <_>
          14 9 10 2 2.</_></rects>
      <tilted>0</tilted></_>
    <_>
      <rects>
        <_>
          4 17 6 3 -1.</_>
        <_>
          7 17 3 3 2.</_></rects>
      <tilted>0</tilted></_>
    <_>
      <rects>
        <_>
          4 19 16 3 -1.</_>
        <_>
          4 20 16 1 3.</_></rects>
      <tilted>0</tilted></_>
    <_>
      <rects>
        <_>
          5 0 15 11 -1.</_>
        <_>
          10 0 5 11 3.</_></rects>
      <tilted>0</tilted></_>
    <_>
      <rects>
        <_>
          5 1 12 18 -1.</_>
        <_>
          5 7 12 6 3.</_></rects>
      <tilted>0</tilted></_>
    <_>
      <rects>
        <_>
          5 7 7 9 -1.</_>
        <_>
          5 10 7 3 3.</_></rects>
      <tilted>0</tilted></_>
    <_>
      <rects>
        <_>
          5 9 15 1 -1.</_>
        <_>
          10 9 5 1 3.</_></rects>
      <tilted>0</tilted></_>
    <_>
      <rects>
        <_>
          5 17 13 4 -1.</_>
        <_>
          5 19 13 2 2.</_></rects>
      <tilted>0</tilted></_>
    <_>
      <rects>
        <_>
          5 18 17 3 -1.</_>
        <_>
          5 19 17 1 3.</_></rects>
      <tilted>0</tilted></_>
    <_>
      <rects>
        <_>
          7 10 6 4 -1.</_>
        <_>
          9 10 2 4 3.</_></rects>
      <tilted>0</tilted></_>
    <_>
      <rects>
        <_>
          7 10 4 6 -1.</_>
        <_>
          7 12 4 2 3.</_></rects>
      <tilted>0</tilted></_>
    <_>
      <rects>
        <_>
          7 13 9 2 -1.</_>
        <_>
          10 13 3 2 3.</_></rects>
      <tilted>0</tilted></_>
    <_>
      <rects>
        <_>
          7 19 11 3 -1.</_>
        <_>
          7 20 11 1 3.</_></rects>
      <tilted>0</tilted></_>
    <_>
      <rects>
        <_>
          8 0 3 14 -1.</_>
        <_>
          8 7 3 7 2.</_></rects>
      <tilted>0</tilted></_>
    <_>
      <rects>
        <_>
          8 3 9 8 -1.</_>
        <_>
          11 3 3 8 3.</_></rects>
      <tilted>0</tilted></_>
    <_>
      <rects>
        <_>
          8 8 6 4 -1.</_>
        <_>
          8 8 3 2 2.</_>
        <_>
          11 10 3 2 2.</_></rects>
      <tilted>0</tilted></_>
    <_>
      <rects>
        <_>
          8 10 6 8 -1.</_>
        <_>
          8 10 3 4 2.</_>
        <_>
          11 14 3 4 2.</_></rects>
      <tilted>0</tilted></_>
    <_>
      <rects>
        <_>
          9 1 6 9 -1.</_>
        <_>
          11 1 2 9 3.</_></rects>
      <tilted>0</tilted></_>
    <_>
      <rects>
        <_>
          9 3 6 3 -1.</_>
        <_>
          11 3 2 3 3.</_></rects>
      <tilted>0</tilted></_>
    <_>
      <rects>
        <_>
          9 3 6 12 -1.</_>
        <_>
          9 7 6 4 3.</_></rects>
      <tilted>0</tilted></_>
    <_>
      <rects>
        <_>
          9 6 3 9 -1.</_>
        <_>
          9 9 3 3 3.</_></rects>
      <tilted>0</tilted></_>
    <_>
      <rects>
        <_>
          9 8 1 2 -1.</_>
        <_>
          9 9 1 1 2.</_></rects>
      <tilted>0</tilted></_>
    <_>
      <rects>
        <_>
          9 16 8 6 -1.</_>
        <_>
          9 18 8 2 3.</_></rects>
      <tilted>0</tilted></_>
    <_>
      <rects>
        <_>
          9 18 3 3 -1.</_>
        <_>
          10 18 1 3 3.</_></rects>
      <tilted>0</tilted></_>
    <_>
      <rects>
        <_>
          10 2 2 4 -1.</_>
        <_>
          11 2 1 4 2.</_></rects>
      <tilted>0</tilted></_>
    <_>
      <rects>
        <_>
          10 2 2 5 -1.</_>
        <_>
          11 2 1 5 2.</_></rects>
      <tilted>0</tilted></_>
    <_>
      <rects>
        <_>
          10 7 6 4 -1.</_>
        <_>
          10 7 3 2 2.</_>
        <_>
          13 9 3 2 2.</_></rects>
      <tilted>0</tilted></_>
    <_>
      <rects>
        <_>
          10 9 4 5 -1.</_>
        <_>
          12 9 2 5 2.</_></rects>
      <tilted>0</tilted></_>
    <_>
      <rects>
        <_>
          10 10 4 14 -1.</_>
        <_>
          10 10 2 7 2.</_>
        <_>
          12 17 2 7 2.</_></rects>
      <tilted>0</tilted></_>
    <_>
      <rects>
        <_>
          10 11 4 1 -1.</_>
        <_>
          12 11 2 1 2.</_></rects>
      <tilted>0</tilted></_>
    <_>
      <rects>
        <_>
          10 12 11 10 -1.</_>
        <_>
          10 17 11 5 2.</_></rects>
      <tilted>0</tilted></_>
    <_>
      <rects>
        <_>
          11 2 3 3 -1.</_>
        <_>
          12 2 1 3 3.</_></rects>
      <tilted>0</tilted></_>
    <_>
      <rects>
        <_>
          11 7 2 12 -1.</_>
        <_>
          11 11 2 4 3.</_></rects>
      <tilted>0</tilted></_>
    <_>
      <rects>
        <_>
          12 1 2 6 -1.</_>
        <_>
          12 1 1 3 2.</_>
        <_>
          13 4 1 3 2.</_></rects>
      <tilted>0</tilted></_>
    <_>
      <rects>
        <_>
          12 4 2 1 -1.</_>
        <_>
          13 4 1 1 2.</_></rects>
      <tilted>0</tilted></_>
    <_>
      <rects>
        <_>
          12 18 2 3 -1.</_>
        <_>
          12 19 2 1 3.</_></rects>
      <tilted>0</tilted></_>
    <_>
      <rects>
        <_>
          13 20 2 2 -1.</_>
        <_>
          13 20 1 1 2.</_>
        <_>
          14 21 1 1 2.</_></rects>
      <tilted>0</tilted></_>
    <_>
      <rects>
        <_>
          14 4 1 6 -1.</_>
        <_>
          14 6 1 2 3.</_></rects>
      <tilted>0</tilted></_>
    <_>
      <rects>
        <_>
          15 10 3 8 -1.</_>
        <_>
          16 10 1 8 3.</_></rects>
      <tilted>0</tilted></_>
    <_>
      <rects>
        <_>
          18 17 3 3 -1.</_>
        <_>
          19 17 1 3 3.</_></rects>
      <tilted>0</tilted></_>
    <_>
      <rects>
        <_>
          23 7 1 2 -1.</_>
        <_>
          23 8 1 1 2.</_></rects>
      <tilted>0</tilted></_></features></cascade>
</opencv_storage>
